digraph Tree {
node [shape=box, style="filled", color="black", fontname="helvetica"] ;
edge [fontname="helvetica"] ;
0 [label="Financial Condition <= 1.5\ngini = 0.667\nsamples = 1406\nvalue = [471.0, 479.0, 456.0]", fillcolor="#fdfffe"] ;
1 [label="Institution Type <= 0.5\ngini = 0.654\nsamples = 1202\nvalue = [461, 451, 290]", fillcolor="#fffdfc"] ;
0 -> 1 [labeldistance=2.5, labelangle=45, headlabel="True"] ;
2 [label="Gender <= 0.5\ngini = 0.54\nsamples = 362\nvalue = [223.0, 91.0, 48.0]", fillcolor="#f2c29f"] ;
1 -> 2 ;
3 [label="Education Level <= 1.5\ngini = 0.323\nsamples = 138\nvalue = [112.0, 15.0, 11.0]", fillcolor="#ea9c63"] ;
2 -> 3 ;
4 [label="Age <= 21.5\ngini = 0.256\nsamples = 96\nvalue = [82, 3, 11]", fillcolor="#e9965a"] ;
3 -> 4 ;
5 [label="Age <= 14.5\ngini = 0.381\nsamples = 43\nvalue = [32, 0, 11]", fillcolor="#eeac7d"] ;
4 -> 5 ;
6 [label="gini = 0.0\nsamples = 22\nvalue = [22, 0, 0]", fillcolor="#e58139"] ;
5 -> 6 ;
7 [label="Location <= 0.5\ngini = 0.499\nsamples = 21\nvalue = [10, 0, 11]", fillcolor="#f4edfd"] ;
5 -> 7 ;
8 [label="gini = 0.0\nsamples = 11\nvalue = [0, 0, 11]", fillcolor="#8139e5"] ;
7 -> 8 ;
9 [label="gini = 0.0\nsamples = 10\nvalue = [10, 0, 0]", fillcolor="#e58139"] ;
7 -> 9 ;
10 [label="Age <= 25.0\ngini = 0.107\nsamples = 53\nvalue = [50, 3, 0]", fillcolor="#e78945"] ;
4 -> 10 ;
11 [label="Location <= 0.5\ngini = 0.185\nsamples = 29\nvalue = [26, 3, 0]", fillcolor="#e89050"] ;
10 -> 11 ;
12 [label="gini = 0.0\nsamples = 10\nvalue = [10, 0, 0]", fillcolor="#e58139"] ;
11 -> 12 ;
13 [label="Financial Condition <= 0.5\ngini = 0.266\nsamples = 19\nvalue = [16, 3, 0]", fillcolor="#ea995e"] ;
11 -> 13 ;
14 [label="gini = 0.0\nsamples = 5\nvalue = [5, 0, 0]", fillcolor="#e58139"] ;
13 -> 14 ;
15 [label="Internet Type <= 0.5\ngini = 0.337\nsamples = 14\nvalue = [11, 3, 0]", fillcolor="#eca36f"] ;
13 -> 15 ;
16 [label="gini = 0.42\nsamples = 10\nvalue = [7, 3, 0]", fillcolor="#f0b78e"] ;
15 -> 16 ;
17 [label="gini = 0.0\nsamples = 4\nvalue = [4, 0, 0]", fillcolor="#e58139"] ;
15 -> 17 ;
18 [label="gini = 0.0\nsamples = 24\nvalue = [24, 0, 0]", fillcolor="#e58139"] ;
10 -> 18 ;
19 [label="Internet Type <= 0.5\ngini = 0.408\nsamples = 42\nvalue = [30, 12, 0]", fillcolor="#efb388"] ;
3 -> 19 ;
20 [label="IT Student <= 0.5\ngini = 0.307\nsamples = 37\nvalue = [30, 7, 0]", fillcolor="#eb9e67"] ;
19 -> 20 ;
21 [label="Age <= 20.5\ngini = 0.245\nsamples = 35\nvalue = [30, 5, 0]", fillcolor="#e9965a"] ;
20 -> 21 ;
22 [label="Network Type <= 1.5\ngini = 0.278\nsamples = 30\nvalue = [25, 5, 0]", fillcolor="#ea9a61"] ;
21 -> 22 ;
23 [label="Location <= 0.5\ngini = 0.375\nsamples = 12\nvalue = [9, 3, 0]", fillcolor="#eeab7b"] ;
22 -> 23 ;
24 [label="gini = 0.444\nsamples = 9\nvalue = [6, 3, 0]", fillcolor="#f2c09c"] ;
23 -> 24 ;
25 [label="gini = 0.0\nsamples = 3\nvalue = [3, 0, 0]", fillcolor="#e58139"] ;
23 -> 25 ;
26 [label="Financial Condition <= 0.5\ngini = 0.198\nsamples = 18\nvalue = [16, 2, 0]", fillcolor="#e89152"] ;
22 -> 26 ;
27 [label="gini = 0.0\nsamples = 2\nvalue = [2, 0, 0]", fillcolor="#e58139"] ;
26 -> 27 ;
28 [label="gini = 0.219\nsamples = 16\nvalue = [14, 2, 0]", fillcolor="#e99355"] ;
26 -> 28 ;
29 [label="gini = 0.0\nsamples = 5\nvalue = [5, 0, 0]", fillcolor="#e58139"] ;
21 -> 29 ;
30 [label="gini = 0.0\nsamples = 2\nvalue = [0, 2, 0]", fillcolor="#39e581"] ;
20 -> 30 ;
31 [label="gini = 0.0\nsamples = 5\nvalue = [0, 5, 0]", fillcolor="#39e581"] ;
19 -> 31 ;
32 [label="Location <= 0.5\ngini = 0.612\nsamples = 224\nvalue = [111, 76, 37]", fillcolor="#f9e1d0"] ;
2 -> 32 ;
33 [label="Age <= 25.0\ngini = 0.512\nsamples = 101\nvalue = [66, 19, 16]", fillcolor="#f0b78e"] ;
32 -> 33 ;
34 [label="Age <= 14.5\ngini = 0.323\nsamples = 74\nvalue = [59, 15, 0]", fillcolor="#eca16b"] ;
33 -> 34 ;
35 [label="gini = 0.0\nsamples = 18\nvalue = [18, 0, 0]", fillcolor="#e58139"] ;
34 -> 35 ;
36 [label="Education Level <= 1.5\ngini = 0.392\nsamples = 56\nvalue = [41, 15, 0]", fillcolor="#efaf81"] ;
34 -> 36 ;
37 [label="Network Type <= 1.5\ngini = 0.49\nsamples = 28\nvalue = [16, 12, 0]", fillcolor="#f8e0ce"] ;
36 -> 37 ;
38 [label="IT Student <= 0.5\ngini = 0.142\nsamples = 13\nvalue = [12, 1, 0]", fillcolor="#e78c49"] ;
37 -> 38 ;
39 [label="gini = 0.0\nsamples = 9\nvalue = [9, 0, 0]", fillcolor="#e58139"] ;
38 -> 39 ;
40 [label="gini = 0.375\nsamples = 4\nvalue = [3, 1, 0]", fillcolor="#eeab7b"] ;
38 -> 40 ;
41 [label="Internet Type <= 0.5\ngini = 0.391\nsamples = 15\nvalue = [4, 11, 0]", fillcolor="#81eeaf"] ;
37 -> 41 ;
42 [label="Financial Condition <= 0.5\ngini = 0.278\nsamples = 12\nvalue = [2, 10, 0]", fillcolor="#61ea9a"] ;
41 -> 42 ;
43 [label="gini = 0.0\nsamples = 5\nvalue = [0, 5, 0]", fillcolor="#39e581"] ;
42 -> 43 ;
44 [label="gini = 0.408\nsamples = 7\nvalue = [2, 5, 0]", fillcolor="#88efb3"] ;
42 -> 44 ;
45 [label="Education Level <= 0.5\ngini = 0.444\nsamples = 3\nvalue = [2, 1, 0]", fillcolor="#f2c09c"] ;
41 -> 45 ;
46 [label="gini = 0.0\nsamples = 1\nvalue = [0, 1, 0]", fillcolor="#39e581"] ;
45 -> 46 ;
47 [label="gini = 0.0\nsamples = 2\nvalue = [2, 0, 0]", fillcolor="#e58139"] ;
45 -> 47 ;
48 [label="Network Type <= 1.5\ngini = 0.191\nsamples = 28\nvalue = [25, 3, 0]", fillcolor="#e89051"] ;
36 -> 48 ;
49 [label="Age <= 20.5\ngini = 0.444\nsamples = 9\nvalue = [6, 3, 0]", fillcolor="#f2c09c"] ;
48 -> 49 ;
50 [label="Network Type <= 0.5\ngini = 0.5\nsamples = 6\nvalue = [3, 3, 0]", fillcolor="#ffffff"] ;
49 -> 50 ;
51 [label="gini = 0.0\nsamples = 2\nvalue = [2, 0, 0]", fillcolor="#e58139"] ;
50 -> 51 ;
52 [label="Financial Condition <= 0.5\ngini = 0.375\nsamples = 4\nvalue = [1, 3, 0]", fillcolor="#7beeab"] ;
50 -> 52 ;
53 [label="gini = 0.0\nsamples = 3\nvalue = [0, 3, 0]", fillcolor="#39e581"] ;
52 -> 53 ;
54 [label="gini = 0.0\nsamples = 1\nvalue = [1, 0, 0]", fillcolor="#e58139"] ;
52 -> 54 ;
55 [label="gini = 0.0\nsamples = 3\nvalue = [3, 0, 0]", fillcolor="#e58139"] ;
49 -> 55 ;
56 [label="gini = 0.0\nsamples = 19\nvalue = [19, 0, 0]", fillcolor="#e58139"] ;
48 -> 56 ;
57 [label="Financial Condition <= 0.5\ngini = 0.56\nsamples = 27\nvalue = [7, 4, 16]", fillcolor="#c6a6f3"] ;
33 -> 57 ;
58 [label="IT Student <= 0.5\ngini = 0.463\nsamples = 11\nvalue = [7, 4, 0]", fillcolor="#f4c9aa"] ;
57 -> 58 ;
59 [label="gini = 0.0\nsamples = 7\nvalue = [7, 0, 0]", fillcolor="#e58139"] ;
58 -> 59 ;
60 [label="gini = 0.0\nsamples = 4\nvalue = [0, 4, 0]", fillcolor="#39e581"] ;
58 -> 60 ;
61 [label="gini = 0.0\nsamples = 16\nvalue = [0, 0, 16]", fillcolor="#8139e5"] ;
57 -> 61 ;
62 [label="Age <= 14.5\ngini = 0.622\nsamples = 123\nvalue = [45, 57, 21]", fillcolor="#e1fbec"] ;
32 -> 62 ;
63 [label="Age <= 10.5\ngini = 0.506\nsamples = 32\nvalue = [4, 7, 21]", fillcolor="#b890f0"] ;
62 -> 63 ;
64 [label="gini = 0.0\nsamples = 4\nvalue = [4, 0, 0]", fillcolor="#e58139"] ;
63 -> 64 ;
65 [label="Device <= 0.5\ngini = 0.375\nsamples = 28\nvalue = [0, 7, 21]", fillcolor="#ab7bee"] ;
63 -> 65 ;
66 [label="Internet Type <= 0.5\ngini = 0.311\nsamples = 26\nvalue = [0, 5, 21]", fillcolor="#9f68eb"] ;
65 -> 66 ;
67 [label="gini = 0.0\nsamples = 2\nvalue = [0, 2, 0]", fillcolor="#39e581"] ;
66 -> 67 ;
68 [label="gini = 0.219\nsamples = 24\nvalue = [0, 3, 21]", fillcolor="#9355e9"] ;
66 -> 68 ;
69 [label="gini = 0.0\nsamples = 2\nvalue = [0, 2, 0]", fillcolor="#39e581"] ;
65 -> 69 ;
70 [label="Age <= 20.5\ngini = 0.495\nsamples = 91\nvalue = [41.0, 50.0, 0.0]", fillcolor="#dbfae8"] ;
62 -> 70 ;
71 [label="Internet Type <= 0.5\ngini = 0.413\nsamples = 55\nvalue = [16, 39, 0]", fillcolor="#8af0b5"] ;
70 -> 71 ;
72 [label="Financial Condition <= 0.5\ngini = 0.469\nsamples = 16\nvalue = [10, 6, 0]", fillcolor="#f5cdb0"] ;
71 -> 72 ;
73 [label="gini = 0.0\nsamples = 4\nvalue = [4, 0, 0]", fillcolor="#e58139"] ;
72 -> 73 ;
74 [label="IT Student <= 0.5\ngini = 0.5\nsamples = 12\nvalue = [6, 6, 0]", fillcolor="#ffffff"] ;
72 -> 74 ;
75 [label="Network Type <= 1.5\ngini = 0.444\nsamples = 6\nvalue = [2, 4, 0]", fillcolor="#9cf2c0"] ;
74 -> 75 ;
76 [label="gini = 0.0\nsamples = 1\nvalue = [0, 1, 0]", fillcolor="#39e581"] ;
75 -> 76 ;
77 [label="gini = 0.48\nsamples = 5\nvalue = [2, 3, 0]", fillcolor="#bdf6d5"] ;
75 -> 77 ;
78 [label="gini = 0.444\nsamples = 6\nvalue = [4, 2, 0]", fillcolor="#f2c09c"] ;
74 -> 78 ;
79 [label="Education Level <= 1.5\ngini = 0.26\nsamples = 39\nvalue = [6, 33, 0]", fillcolor="#5dea98"] ;
71 -> 79 ;
80 [label="gini = 0.0\nsamples = 14\nvalue = [0, 14, 0]", fillcolor="#39e581"] ;
79 -> 80 ;
81 [label="IT Student <= 0.5\ngini = 0.365\nsamples = 25\nvalue = [6, 19, 0]", fillcolor="#78eda9"] ;
79 -> 81 ;
82 [label="Network Type <= 1.5\ngini = 0.42\nsamples = 20\nvalue = [6, 14, 0]", fillcolor="#8ef0b7"] ;
81 -> 82 ;
83 [label="gini = 0.0\nsamples = 5\nvalue = [0, 5, 0]", fillcolor="#39e581"] ;
82 -> 83 ;
84 [label="gini = 0.48\nsamples = 15\nvalue = [6, 9, 0]", fillcolor="#bdf6d5"] ;
82 -> 84 ;
85 [label="gini = 0.0\nsamples = 5\nvalue = [0, 5, 0]", fillcolor="#39e581"] ;
81 -> 85 ;
86 [label="Education Level <= 1.5\ngini = 0.424\nsamples = 36\nvalue = [25, 11, 0]", fillcolor="#f0b890"] ;
70 -> 86 ;
87 [label="Device <= 0.5\ngini = 0.35\nsamples = 31\nvalue = [24, 7, 0]", fillcolor="#eda673"] ;
86 -> 87 ;
88 [label="Age <= 25.0\ngini = 0.413\nsamples = 24\nvalue = [17, 7, 0]", fillcolor="#f0b58b"] ;
87 -> 88 ;
89 [label="IT Student <= 0.5\ngini = 0.351\nsamples = 22\nvalue = [17, 5, 0]", fillcolor="#eda673"] ;
88 -> 89 ;
90 [label="Network Type <= 1.5\ngini = 0.231\nsamples = 15\nvalue = [13, 2, 0]", fillcolor="#e99457"] ;
89 -> 90 ;
91 [label="gini = 0.0\nsamples = 3\nvalue = [3, 0, 0]", fillcolor="#e58139"] ;
90 -> 91 ;
92 [label="Internet Type <= 0.5\ngini = 0.278\nsamples = 12\nvalue = [10, 2, 0]", fillcolor="#ea9a61"] ;
90 -> 92 ;
93 [label="gini = 0.32\nsamples = 10\nvalue = [8, 2, 0]", fillcolor="#eca06a"] ;
92 -> 93 ;
94 [label="gini = 0.0\nsamples = 2\nvalue = [2, 0, 0]", fillcolor="#e58139"] ;
92 -> 94 ;
95 [label="Internet Type <= 0.5\ngini = 0.49\nsamples = 7\nvalue = [4, 3, 0]", fillcolor="#f8e0ce"] ;
89 -> 95 ;
96 [label="gini = 0.48\nsamples = 5\nvalue = [2, 3, 0]", fillcolor="#bdf6d5"] ;
95 -> 96 ;
97 [label="gini = 0.0\nsamples = 2\nvalue = [2, 0, 0]", fillcolor="#e58139"] ;
95 -> 97 ;
98 [label="gini = 0.0\nsamples = 2\nvalue = [0, 2, 0]", fillcolor="#39e581"] ;
88 -> 98 ;
99 [label="gini = 0.0\nsamples = 7\nvalue = [7, 0, 0]", fillcolor="#e58139"] ;
87 -> 99 ;
100 [label="IT Student <= 0.5\ngini = 0.32\nsamples = 5\nvalue = [1, 4, 0]", fillcolor="#6aeca0"] ;
86 -> 100 ;
101 [label="gini = 0.0\nsamples = 1\nvalue = [1, 0, 0]", fillcolor="#e58139"] ;
100 -> 101 ;
102 [label="gini = 0.0\nsamples = 4\nvalue = [0, 4, 0]", fillcolor="#39e581"] ;
100 -> 102 ;
103 [label="Financial Condition <= 0.5\ngini = 0.653\nsamples = 840\nvalue = [238.0, 360.0, 242.0]", fillcolor="#d8fae6"] ;
1 -> 103 ;
104 [label="Age <= 20.5\ngini = 0.632\nsamples = 272\nvalue = [93, 54, 125]", fillcolor="#e8dcfa"] ;
103 -> 104 ;
105 [label="Age <= 10.5\ngini = 0.636\nsamples = 160\nvalue = [76, 44, 40]", fillcolor="#f8dcc8"] ;
104 -> 105 ;
106 [label="Network Type <= 1.5\ngini = 0.582\nsamples = 73\nvalue = [10, 23, 40]", fillcolor="#d4bcf6"] ;
105 -> 106 ;
107 [label="gini = 0.198\nsamples = 45\nvalue = [5, 0, 40]", fillcolor="#9152e8"] ;
106 -> 107 ;
108 [label="Gender <= 0.5\ngini = 0.293\nsamples = 28\nvalue = [5, 23, 0]", fillcolor="#64eb9c"] ;
106 -> 108 ;
109 [label="gini = 0.0\nsamples = 23\nvalue = [0, 23, 0]", fillcolor="#39e581"] ;
108 -> 109 ;
110 [label="gini = 0.0\nsamples = 5\nvalue = [5, 0, 0]", fillcolor="#e58139"] ;
108 -> 110 ;
111 [label="IT Student <= 0.5\ngini = 0.366\nsamples = 87\nvalue = [66, 21, 0]", fillcolor="#eda978"] ;
105 -> 111 ;
112 [label="Gender <= 0.5\ngini = 0.347\nsamples = 85\nvalue = [66, 19, 0]", fillcolor="#eca572"] ;
111 -> 112 ;
113 [label="Internet Type <= 0.5\ngini = 0.433\nsamples = 41\nvalue = [28.0, 13.0, 0.0]", fillcolor="#f1bc95"] ;
112 -> 113 ;
114 [label="Network Type <= 1.5\ngini = 0.346\nsamples = 36\nvalue = [28, 8, 0]", fillcolor="#eca572"] ;
113 -> 114 ;
115 [label="Age <= 14.5\ngini = 0.291\nsamples = 34\nvalue = [28, 6, 0]", fillcolor="#eb9c63"] ;
114 -> 115 ;
116 [label="gini = 0.346\nsamples = 27\nvalue = [21, 6, 0]", fillcolor="#eca572"] ;
115 -> 116 ;
117 [label="gini = 0.0\nsamples = 7\nvalue = [7, 0, 0]", fillcolor="#e58139"] ;
115 -> 117 ;
118 [label="gini = 0.0\nsamples = 2\nvalue = [0, 2, 0]", fillcolor="#39e581"] ;
114 -> 118 ;
119 [label="gini = 0.0\nsamples = 5\nvalue = [0, 5, 0]", fillcolor="#39e581"] ;
113 -> 119 ;
120 [label="Internet Type <= 0.5\ngini = 0.236\nsamples = 44\nvalue = [38, 6, 0]", fillcolor="#e99558"] ;
112 -> 120 ;
121 [label="Network Type <= 1.5\ngini = 0.355\nsamples = 26\nvalue = [20, 6, 0]", fillcolor="#eda774"] ;
120 -> 121 ;
122 [label="gini = 0.227\nsamples = 23\nvalue = [20, 3, 0]", fillcolor="#e99457"] ;
121 -> 122 ;
123 [label="gini = 0.0\nsamples = 3\nvalue = [0, 3, 0]", fillcolor="#39e581"] ;
121 -> 123 ;
124 [label="gini = 0.0\nsamples = 18\nvalue = [18, 0, 0]", fillcolor="#e58139"] ;
120 -> 124 ;
125 [label="gini = 0.0\nsamples = 2\nvalue = [0, 2, 0]", fillcolor="#39e581"] ;
111 -> 125 ;
126 [label="Network Type <= 1.5\ngini = 0.393\nsamples = 112\nvalue = [17, 10, 85]", fillcolor="#a571ec"] ;
104 -> 126 ;
127 [label="IT Student <= 0.5\ngini = 0.605\nsamples = 23\nvalue = [10, 10, 3]", fillcolor="#ffffff"] ;
126 -> 127 ;
128 [label="gini = 0.0\nsamples = 3\nvalue = [0, 0, 3]", fillcolor="#8139e5"] ;
127 -> 128 ;
129 [label="Internet Type <= 0.5\ngini = 0.5\nsamples = 20\nvalue = [10, 10, 0]", fillcolor="#ffffff"] ;
127 -> 129 ;
130 [label="Location <= 0.5\ngini = 0.42\nsamples = 10\nvalue = [3, 7, 0]", fillcolor="#8ef0b7"] ;
129 -> 130 ;
131 [label="gini = 0.0\nsamples = 4\nvalue = [0, 4, 0]", fillcolor="#39e581"] ;
130 -> 131 ;
132 [label="Age <= 25.0\ngini = 0.5\nsamples = 6\nvalue = [3, 3, 0]", fillcolor="#ffffff"] ;
130 -> 132 ;
133 [label="gini = 0.48\nsamples = 5\nvalue = [3, 2, 0]", fillcolor="#f6d5bd"] ;
132 -> 133 ;
134 [label="gini = 0.0\nsamples = 1\nvalue = [0, 1, 0]", fillcolor="#39e581"] ;
132 -> 134 ;
135 [label="Device <= 0.5\ngini = 0.42\nsamples = 10\nvalue = [7, 3, 0]", fillcolor="#f0b78e"] ;
129 -> 135 ;
136 [label="gini = 0.0\nsamples = 5\nvalue = [5, 0, 0]", fillcolor="#e58139"] ;
135 -> 136 ;
137 [label="Gender <= 0.5\ngini = 0.48\nsamples = 5\nvalue = [2, 3, 0]", fillcolor="#bdf6d5"] ;
135 -> 137 ;
138 [label="gini = 0.0\nsamples = 2\nvalue = [2, 0, 0]", fillcolor="#e58139"] ;
137 -> 138 ;
139 [label="gini = 0.0\nsamples = 3\nvalue = [0, 3, 0]", fillcolor="#39e581"] ;
137 -> 139 ;
140 [label="Location <= 0.5\ngini = 0.145\nsamples = 89\nvalue = [7, 0, 82]", fillcolor="#8c4ae7"] ;
126 -> 140 ;
141 [label="gini = 0.0\nsamples = 4\nvalue = [4, 0, 0]", fillcolor="#e58139"] ;
140 -> 141 ;
142 [label="Gender <= 0.5\ngini = 0.068\nsamples = 85\nvalue = [3, 0, 82]", fillcolor="#8640e6"] ;
140 -> 142 ;
143 [label="gini = 0.0\nsamples = 3\nvalue = [3, 0, 0]", fillcolor="#e58139"] ;
142 -> 143 ;
144 [label="gini = 0.0\nsamples = 82\nvalue = [0, 0, 82]", fillcolor="#8139e5"] ;
142 -> 144 ;
145 [label="Education Level <= 1.5\ngini = 0.602\nsamples = 568\nvalue = [145.0, 306.0, 117.0]", fillcolor="#b4f5cf"] ;
103 -> 145 ;
146 [label="Internet Type <= 0.5\ngini = 0.593\nsamples = 497\nvalue = [107, 276, 114]", fillcolor="#abf4ca"] ;
145 -> 146 ;
147 [label="Gender <= 0.5\ngini = 0.555\nsamples = 298\nvalue = [42, 178, 78]", fillcolor="#a5f3c6"] ;
146 -> 147 ;
148 [label="Age <= 14.5\ngini = 0.321\nsamples = 111\nvalue = [15, 90, 6]", fillcolor="#64eb9d"] ;
147 -> 148 ;
149 [label="Location <= 0.5\ngini = 0.134\nsamples = 83\nvalue = [6, 77, 0]", fillcolor="#48e78b"] ;
148 -> 149 ;
150 [label="gini = 0.0\nsamples = 4\nvalue = [4, 0, 0]", fillcolor="#e58139"] ;
149 -> 150 ;
151 [label="Network Type <= 0.5\ngini = 0.049\nsamples = 79\nvalue = [2, 77, 0]", fillcolor="#3ee684"] ;
149 -> 151 ;
152 [label="gini = 0.0\nsamples = 2\nvalue = [2, 0, 0]", fillcolor="#e58139"] ;
151 -> 152 ;
153 [label="gini = 0.0\nsamples = 77\nvalue = [0, 77, 0]", fillcolor="#39e581"] ;
151 -> 153 ;
154 [label="Age <= 20.5\ngini = 0.635\nsamples = 28\nvalue = [9, 13, 6]", fillcolor="#d5fae4"] ;
148 -> 154 ;
155 [label="Location <= 0.5\ngini = 0.375\nsamples = 12\nvalue = [9, 3, 0]", fillcolor="#eeab7b"] ;
154 -> 155 ;
156 [label="gini = 0.0\nsamples = 3\nvalue = [0, 3, 0]", fillcolor="#39e581"] ;
155 -> 156 ;
157 [label="gini = 0.0\nsamples = 9\nvalue = [9, 0, 0]", fillcolor="#e58139"] ;
155 -> 157 ;
158 [label="Network Type <= 1.5\ngini = 0.469\nsamples = 16\nvalue = [0, 10, 6]", fillcolor="#b0f5cd"] ;
154 -> 158 ;
159 [label="IT Student <= 0.5\ngini = 0.496\nsamples = 11\nvalue = [0, 5, 6]", fillcolor="#eadefb"] ;
158 -> 159 ;
160 [label="gini = 0.0\nsamples = 6\nvalue = [0, 0, 6]", fillcolor="#8139e5"] ;
159 -> 160 ;
161 [label="gini = 0.0\nsamples = 5\nvalue = [0, 5, 0]", fillcolor="#39e581"] ;
159 -> 161 ;
162 [label="gini = 0.0\nsamples = 5\nvalue = [0, 5, 0]", fillcolor="#39e581"] ;
158 -> 162 ;
163 [label="Network Type <= 1.5\ngini = 0.609\nsamples = 187\nvalue = [27, 88, 72]", fillcolor="#e3fbed"] ;
147 -> 163 ;
164 [label="Location <= 0.5\ngini = 0.512\nsamples = 79\nvalue = [19, 51, 9]", fillcolor="#95f1bc"] ;
163 -> 164 ;
165 [label="Device <= 0.5\ngini = 0.662\nsamples = 21\nvalue = [6, 8, 7]", fillcolor="#f1fdf6"] ;
164 -> 165 ;
166 [label="Education Level <= 0.5\ngini = 0.569\nsamples = 12\nvalue = [2, 3, 7]", fillcolor="#c7a7f3"] ;
165 -> 166 ;
167 [label="gini = 0.0\nsamples = 2\nvalue = [2, 0, 0]", fillcolor="#e58139"] ;
166 -> 167 ;
168 [label="Age <= 25.0\ngini = 0.42\nsamples = 10\nvalue = [0, 3, 7]", fillcolor="#b78ef0"] ;
166 -> 168 ;
169 [label="gini = 0.219\nsamples = 8\nvalue = [0, 1, 7]", fillcolor="#9355e9"] ;
168 -> 169 ;
170 [label="gini = 0.0\nsamples = 2\nvalue = [0, 2, 0]", fillcolor="#39e581"] ;
168 -> 170 ;
171 [label="gini = 0.494\nsamples = 9\nvalue = [4, 5, 0]", fillcolor="#d7fae6"] ;
165 -> 171 ;
172 [label="Age <= 10.5\ngini = 0.399\nsamples = 58\nvalue = [13, 43, 2]", fillcolor="#7beeab"] ;
164 -> 172 ;
173 [label="gini = 0.0\nsamples = 2\nvalue = [2, 0, 0]", fillcolor="#e58139"] ;
172 -> 173 ;
174 [label="IT Student <= 0.5\ngini = 0.371\nsamples = 56\nvalue = [11, 43, 2]", fillcolor="#72eda5"] ;
172 -> 174 ;
175 [label="Education Level <= 0.5\ngini = 0.495\nsamples = 31\nvalue = [9, 20, 2]", fillcolor="#9cf2c0"] ;
174 -> 175 ;
176 [label="gini = 0.514\nsamples = 29\nvalue = [9, 18, 2]", fillcolor="#a6f3c6"] ;
175 -> 176 ;
177 [label="gini = 0.0\nsamples = 2\nvalue = [0, 2, 0]", fillcolor="#39e581"] ;
175 -> 177 ;
178 [label="Age <= 17.0\ngini = 0.147\nsamples = 25\nvalue = [2, 23, 0]", fillcolor="#4ae78c"] ;
174 -> 178 ;
179 [label="gini = 0.0\nsamples = 6\nvalue = [0, 6, 0]", fillcolor="#39e581"] ;
178 -> 179 ;
180 [label="Device <= 0.5\ngini = 0.188\nsamples = 19\nvalue = [2, 17, 0]", fillcolor="#50e890"] ;
178 -> 180 ;
181 [label="gini = 0.208\nsamples = 17\nvalue = [2, 15, 0]", fillcolor="#53e892"] ;
180 -> 181 ;
182 [label="gini = 0.0\nsamples = 2\nvalue = [0, 2, 0]", fillcolor="#39e581"] ;
180 -> 182 ;
183 [label="Age <= 17.0\ngini = 0.537\nsamples = 108\nvalue = [8.0, 37.0, 63.0]", fillcolor="#d1b6f5"] ;
163 -> 183 ;
184 [label="IT Student <= 0.5\ngini = 0.475\nsamples = 97\nvalue = [3.0, 31.0, 63.0]", fillcolor="#c29ff2"] ;
183 -> 184 ;
185 [label="gini = 0.461\nsamples = 94\nvalue = [3.0, 28.0, 63.0]", fillcolor="#bc96f1"] ;
184 -> 185 ;
186 [label="gini = 0.0\nsamples = 3\nvalue = [0, 3, 0]", fillcolor="#39e581"] ;
184 -> 186 ;
187 [label="Location <= 0.5\ngini = 0.496\nsamples = 11\nvalue = [5, 6, 0]", fillcolor="#defbea"] ;
183 -> 187 ;
188 [label="gini = 0.0\nsamples = 4\nvalue = [0, 4, 0]", fillcolor="#39e581"] ;
187 -> 188 ;
189 [label="IT Student <= 0.5\ngini = 0.408\nsamples = 7\nvalue = [5, 2, 0]", fillcolor="#efb388"] ;
187 -> 189 ;
190 [label="gini = 0.0\nsamples = 5\nvalue = [5, 0, 0]", fillcolor="#e58139"] ;
189 -> 190 ;
191 [label="gini = 0.0\nsamples = 2\nvalue = [0, 2, 0]", fillcolor="#39e581"] ;
189 -> 191 ;
192 [label="Network Type <= 1.5\ngini = 0.618\nsamples = 199\nvalue = [65, 98, 36]", fillcolor="#cef9e0"] ;
146 -> 192 ;
193 [label="IT Student <= 0.5\ngini = 0.637\nsamples = 54\nvalue = [12, 17, 25]", fillcolor="#e4d4f9"] ;
192 -> 193 ;
194 [label="Network Type <= 0.5\ngini = 0.137\nsamples = 27\nvalue = [0, 2, 25]", fillcolor="#8b49e7"] ;
193 -> 194 ;
195 [label="gini = 0.0\nsamples = 2\nvalue = [0, 2, 0]", fillcolor="#39e581"] ;
194 -> 195 ;
196 [label="gini = 0.0\nsamples = 25\nvalue = [0, 0, 25]", fillcolor="#8139e5"] ;
194 -> 196 ;
197 [label="Age <= 25.0\ngini = 0.494\nsamples = 27\nvalue = [12, 15, 0]", fillcolor="#d7fae6"] ;
193 -> 197 ;
198 [label="Gender <= 0.5\ngini = 0.5\nsamples = 24\nvalue = [12, 12, 0]", fillcolor="#ffffff"] ;
197 -> 198 ;
199 [label="Device <= 0.5\ngini = 0.444\nsamples = 9\nvalue = [3, 6, 0]", fillcolor="#9cf2c0"] ;
198 -> 199 ;
200 [label="gini = 0.375\nsamples = 8\nvalue = [2, 6, 0]", fillcolor="#7beeab"] ;
199 -> 200 ;
201 [label="gini = 0.0\nsamples = 1\nvalue = [1, 0, 0]", fillcolor="#e58139"] ;
199 -> 201 ;
202 [label="Device <= 0.5\ngini = 0.48\nsamples = 15\nvalue = [9, 6, 0]", fillcolor="#f6d5bd"] ;
198 -> 202 ;
203 [label="gini = 0.375\nsamples = 4\nvalue = [3, 1, 0]", fillcolor="#eeab7b"] ;
202 -> 203 ;
204 [label="gini = 0.496\nsamples = 11\nvalue = [6, 5, 0]", fillcolor="#fbeade"] ;
202 -> 204 ;
205 [label="gini = 0.0\nsamples = 3\nvalue = [0, 3, 0]", fillcolor="#39e581"] ;
197 -> 205 ;
206 [label="Education Level <= 0.5\ngini = 0.549\nsamples = 145\nvalue = [53, 81, 11]", fillcolor="#c3f7d9"] ;
192 -> 206 ;
207 [label="Age <= 14.5\ngini = 0.449\nsamples = 47\nvalue = [31.0, 16.0, 0.0]", fillcolor="#f2c29f"] ;
206 -> 207 ;
208 [label="Gender <= 0.5\ngini = 0.48\nsamples = 40\nvalue = [24, 16, 0]", fillcolor="#f6d5bd"] ;
207 -> 208 ;
209 [label="gini = 0.0\nsamples = 8\nvalue = [0, 8, 0]", fillcolor="#39e581"] ;
208 -> 209 ;
210 [label="Device <= 0.5\ngini = 0.375\nsamples = 32\nvalue = [24, 8, 0]", fillcolor="#eeab7b"] ;
208 -> 210 ;
211 [label="Age <= 10.0\ngini = 0.408\nsamples = 28\nvalue = [20, 8, 0]", fillcolor="#efb388"] ;
210 -> 211 ;
212 [label="gini = 0.0\nsamples = 4\nvalue = [4, 0, 0]", fillcolor="#e58139"] ;
211 -> 212 ;
213 [label="gini = 0.444\nsamples = 24\nvalue = [16, 8, 0]", fillcolor="#f2c09c"] ;
211 -> 213 ;
214 [label="gini = 0.0\nsamples = 4\nvalue = [4, 0, 0]", fillcolor="#e58139"] ;
210 -> 214 ;
215 [label="gini = 0.0\nsamples = 7\nvalue = [7, 0, 0]", fillcolor="#e58139"] ;
207 -> 215 ;
216 [label="IT Student <= 0.5\ngini = 0.497\nsamples = 98\nvalue = [22, 65, 11]", fillcolor="#8ff0b8"] ;
206 -> 216 ;
217 [label="Location <= 0.5\ngini = 0.105\nsamples = 36\nvalue = [2, 34, 0]", fillcolor="#45e788"] ;
216 -> 217 ;
218 [label="Gender <= 0.5\ngini = 0.444\nsamples = 6\nvalue = [2, 4, 0]", fillcolor="#9cf2c0"] ;
217 -> 218 ;
219 [label="gini = 0.444\nsamples = 3\nvalue = [2, 1, 0]", fillcolor="#f2c09c"] ;
218 -> 219 ;
220 [label="gini = 0.0\nsamples = 3\nvalue = [0, 3, 0]", fillcolor="#39e581"] ;
218 -> 220 ;
221 [label="gini = 0.0\nsamples = 30\nvalue = [0, 30, 0]", fillcolor="#39e581"] ;
217 -> 221 ;
222 [label="Device <= 0.5\ngini = 0.614\nsamples = 62\nvalue = [20, 31, 11]", fillcolor="#cbf8de"] ;
216 -> 222 ;
223 [label="Gender <= 0.5\ngini = 0.469\nsamples = 16\nvalue = [10, 6, 0]", fillcolor="#f5cdb0"] ;
222 -> 223 ;
224 [label="gini = 0.444\nsamples = 9\nvalue = [6, 3, 0]", fillcolor="#f2c09c"] ;
223 -> 224 ;
225 [label="gini = 0.49\nsamples = 7\nvalue = [4, 3, 0]", fillcolor="#f8e0ce"] ;
223 -> 225 ;
226 [label="Gender <= 0.5\ngini = 0.6\nsamples = 46\nvalue = [10, 25, 11]", fillcolor="#b0f5cd"] ;
222 -> 226 ;
227 [label="gini = 0.0\nsamples = 7\nvalue = [0, 7, 0]", fillcolor="#39e581"] ;
226 -> 227 ;
228 [label="Location <= 0.5\ngini = 0.642\nsamples = 39\nvalue = [10, 18, 11]", fillcolor="#cef8e0"] ;
226 -> 228 ;
229 [label="gini = 0.0\nsamples = 4\nvalue = [0, 4, 0]", fillcolor="#39e581"] ;
228 -> 229 ;
230 [label="Age <= 25.0\ngini = 0.66\nsamples = 35\nvalue = [10, 14, 11]", fillcolor="#e6fcef"] ;
228 -> 230 ;
231 [label="gini = 0.663\nsamples = 34\nvalue = [10, 13, 11]", fillcolor="#eefdf4"] ;
230 -> 231 ;
232 [label="gini = 0.0\nsamples = 1\nvalue = [0, 1, 0]", fillcolor="#39e581"] ;
230 -> 232 ;
233 [label="Location <= 0.5\ngini = 0.533\nsamples = 71\nvalue = [38, 30, 3]", fillcolor="#fae6d8"] ;
145 -> 233 ;
234 [label="Internet Type <= 0.5\ngini = 0.355\nsamples = 26\nvalue = [20, 6, 0]", fillcolor="#eda774"] ;
233 -> 234 ;
235 [label="Network Type <= 1.5\ngini = 0.337\nsamples = 14\nvalue = [11, 3, 0]", fillcolor="#eca36f"] ;
234 -> 235 ;
236 [label="gini = 0.375\nsamples = 12\nvalue = [9, 3, 0]", fillcolor="#eeab7b"] ;
235 -> 236 ;
237 [label="gini = 0.0\nsamples = 2\nvalue = [2, 0, 0]", fillcolor="#e58139"] ;
235 -> 237 ;
238 [label="gini = 0.375\nsamples = 12\nvalue = [9, 3, 0]", fillcolor="#eeab7b"] ;
234 -> 238 ;
239 [label="Gender <= 0.5\ngini = 0.551\nsamples = 45\nvalue = [18, 24, 3]", fillcolor="#d3f9e3"] ;
233 -> 239 ;
240 [label="Internet Type <= 0.5\ngini = 0.564\nsamples = 41\nvalue = [18, 20, 3]", fillcolor="#eefdf4"] ;
239 -> 240 ;
241 [label="gini = 0.0\nsamples = 3\nvalue = [0, 3, 0]", fillcolor="#39e581"] ;
240 -> 241 ;
242 [label="Device <= 0.5\ngini = 0.569\nsamples = 38\nvalue = [18, 17, 3]", fillcolor="#fef9f6"] ;
240 -> 242 ;
243 [label="gini = 0.568\nsamples = 35\nvalue = [18, 14, 3]", fillcolor="#fae7d9"] ;
242 -> 243 ;
244 [label="gini = 0.0\nsamples = 3\nvalue = [0, 3, 0]", fillcolor="#39e581"] ;
242 -> 244 ;
245 [label="gini = 0.0\nsamples = 4\nvalue = [0, 4, 0]", fillcolor="#39e581"] ;
239 -> 245 ;
246 [label="Internet Type <= 0.5\ngini = 0.317\nsamples = 204\nvalue = [10.0, 28.0, 166.0]", fillcolor="#9c64eb"] ;
0 -> 246 [labeldistance=2.5, labelangle=-45, headlabel="False"] ;
247 [label="Age <= 10.0\ngini = 0.577\nsamples = 26\nvalue = [3, 14, 9]", fillcolor="#c5f7da"] ;
246 -> 247 ;
248 [label="gini = 0.0\nsamples = 3\nvalue = [3, 0, 0]", fillcolor="#e58139"] ;
247 -> 248 ;
249 [label="Location <= 0.5\ngini = 0.476\nsamples = 23\nvalue = [0, 14, 9]", fillcolor="#b8f6d2"] ;
247 -> 249 ;
250 [label="gini = 0.0\nsamples = 3\nvalue = [0, 0, 3]", fillcolor="#8139e5"] ;
249 -> 250 ;
251 [label="Institution Type <= 0.5\ngini = 0.42\nsamples = 20\nvalue = [0, 14, 6]", fillcolor="#8ef0b7"] ;
249 -> 251 ;
252 [label="gini = 0.0\nsamples = 7\nvalue = [0, 7, 0]", fillcolor="#39e581"] ;
251 -> 252 ;
253 [label="Network Type <= 1.5\ngini = 0.497\nsamples = 13\nvalue = [0, 7, 6]", fillcolor="#e3fbed"] ;
251 -> 253 ;
254 [label="gini = 0.463\nsamples = 11\nvalue = [0, 7, 4]", fillcolor="#aaf4c9"] ;
253 -> 254 ;
255 [label="gini = 0.0\nsamples = 2\nvalue = [0, 0, 2]", fillcolor="#8139e5"] ;
253 -> 255 ;
256 [label="Location <= 0.5\ngini = 0.214\nsamples = 178\nvalue = [7, 14, 157]", fillcolor="#9152e8"] ;
246 -> 256 ;
257 [label="gini = 0.0\nsamples = 2\nvalue = [2, 0, 0]", fillcolor="#e58139"] ;
256 -> 257 ;
258 [label="Age <= 25.0\ngini = 0.197\nsamples = 176\nvalue = [5, 14, 157]", fillcolor="#9050e8"] ;
256 -> 258 ;
259 [label="Institution Type <= 0.5\ngini = 0.251\nsamples = 134\nvalue = [5, 14, 115]", fillcolor="#9558e9"] ;
258 -> 259 ;
260 [label="gini = 0.444\nsamples = 6\nvalue = [2, 4, 0]", fillcolor="#9cf2c0"] ;
259 -> 260 ;
261 [label="Network Type <= 1.5\ngini = 0.186\nsamples = 128\nvalue = [3, 10, 115]", fillcolor="#8f4fe8"] ;
259 -> 261 ;
262 [label="gini = 0.0\nsamples = 20\nvalue = [0, 0, 20]", fillcolor="#8139e5"] ;
261 -> 262 ;
263 [label="Device <= 0.5\ngini = 0.217\nsamples = 108\nvalue = [3, 10, 95]", fillcolor="#9253e8"] ;
261 -> 263 ;
264 [label="Education Level <= 0.5\ngini = 0.302\nsamples = 46\nvalue = [3, 5, 38]", fillcolor="#9a60ea"] ;
263 -> 264 ;
265 [label="Gender <= 0.5\ngini = 0.206\nsamples = 43\nvalue = [0, 5, 38]", fillcolor="#9253e8"] ;
264 -> 265 ;
266 [label="gini = 0.0\nsamples = 24\nvalue = [0, 0, 24]", fillcolor="#8139e5"] ;
265 -> 266 ;
267 [label="Age <= 10.5\ngini = 0.388\nsamples = 19\nvalue = [0, 5, 14]", fillcolor="#ae80ee"] ;
265 -> 267 ;
268 [label="gini = 0.401\nsamples = 18\nvalue = [0, 5, 13]", fillcolor="#b185ef"] ;
267 -> 268 ;
269 [label="gini = 0.0\nsamples = 1\nvalue = [0, 0, 1]", fillcolor="#8139e5"] ;
267 -> 269 ;
270 [label="gini = 0.0\nsamples = 3\nvalue = [3, 0, 0]", fillcolor="#e58139"] ;
264 -> 270 ;
271 [label="Gender <= 0.5\ngini = 0.148\nsamples = 62\nvalue = [0, 5, 57]", fillcolor="#8c4ae7"] ;
263 -> 271 ;
272 [label="IT Student <= 0.5\ngini = 0.388\nsamples = 19\nvalue = [0, 5, 14]", fillcolor="#ae80ee"] ;
271 -> 272 ;
273 [label="gini = 0.0\nsamples = 2\nvalue = [0, 2, 0]", fillcolor="#39e581"] ;
272 -> 273 ;
274 [label="gini = 0.291\nsamples = 17\nvalue = [0, 3, 14]", fillcolor="#9c63eb"] ;
272 -> 274 ;
275 [label="gini = 0.0\nsamples = 43\nvalue = [0, 0, 43]", fillcolor="#8139e5"] ;
271 -> 275 ;
276 [label="gini = 0.0\nsamples = 42\nvalue = [0, 0, 42]", fillcolor="#8139e5"] ;
258 -> 276 ;
}